<?xml version="1.0"?>
<opencv_storage>
<cascade>
  <stageType>BOOST</stageType>
  <featureType>HAAR</featureType>
  <height>25</height>
  <width>25</width>
  <stageParams>
    <boostType>GAB</boostType>
    <minHitRate>9.9900001287460327e-01</minHitRate>
    <maxFalseAlarm>5.0000000000000000e-01</maxFalseAlarm>
    <weightTrimRate>9.4999999999999996e-01</weightTrimRate>
    <maxDepth>1</maxDepth>
    <maxWeakCount>100</maxWeakCount></stageParams>
  <featureParams>
    <maxCatCount>0</maxCatCount>
    <featSize>1</featSize>
    <mode>ALL</mode></featureParams>
  <stageNum>11</stageNum>
  <stages>
    <!-- stage 0 -->
    <_>
      <maxWeakCount>3</maxWeakCount>
      <stageThreshold>-1.5474455356597900e+00</stageThreshold>
      <weakClassifiers>
        <_>
          <internalNodes>
            0 -1 13 3.4197777509689331e-02</internalNodes>
          <leafValues>
            -9.8803353309631348e-01 7.9487180709838867e-01</leafValues></_>
        <_>
          <internalNodes>
            0 -1 33 -7.5368195772171021e-02</internalNodes>
          <leafValues>
            3.9298489689826965e-01 -9.7582924365997314e-01</leafValues></_>
        <_>
          <internalNodes>
            0 -1 12 -3.6354646086692810e-02</internalNodes>
          <leafValues>
            6.3621717691421509e-01 -9.5239692926406860e-01</leafValues></_></weakClassifiers></_>
    <!-- stage 1 -->
    <_>
      <maxWeakCount>4</maxWeakCount>
      <stageThreshold>-2.2864589691162109e+00</stageThreshold>
      <weakClassifiers>
        <_>
          <internalNodes>
            0 -1 37 3.7907004356384277e-02</internalNodes>
          <leafValues>
            -9.7934871912002563e-01 7.6119405031204224e-01</leafValues></_>
        <_>
          <internalNodes>
            0 -1 14 -1.7745083197951317e-02</internalNodes>
          <leafValues>
            4.9250665307044983e-01 -9.3428325653076172e-01</leafValues></_>
        <_>
          <internalNodes>
            0 -1 24 2.0165266469120979e-02</internalNodes>
          <leafValues>
            -9.1862154006958008e-01 4.0984255075454712e-01</leafValues></_>
        <_>
          <internalNodes>
            0 -1 29 -1.4748929068446159e-02</internalNodes>
          <leafValues>
            6.9045948982238770e-01 -7.8266960382461548e-01</leafValues></_></weakClassifiers></_>
    <!-- stage 2 -->
    <_>
      <maxWeakCount>4</maxWeakCount>
      <stageThreshold>-1.9207072257995605e+00</stageThreshold>
      <weakClassifiers>
        <_>
          <internalNodes>
            0 -1 27 -2.8407011181116104e-02</internalNodes>
          <leafValues>
            6.3076925277709961e-01 -9.7460317611694336e-01</leafValues></_>
        <_>
          <internalNodes>
            0 -1 3 -2.2843508049845695e-02</internalNodes>
          <leafValues>
            6.3015711307525635e-01 -8.9694398641586304e-01</leafValues></_>
        <_>
          <internalNodes>
            0 -1 1 -1.2149734422564507e-02</internalNodes>
          <leafValues>
            7.3755300045013428e-01 -7.4942988157272339e-01</leafValues></_>
        <_>
          <internalNodes>
            0 -1 28 1.1683309450745583e-02</internalNodes>
          <leafValues>
            -6.5809768438339233e-01 7.0026975870132446e-01</leafValues></_></weakClassifiers></_>
    <!-- stage 3 -->
    <_>
      <maxWeakCount>4</maxWeakCount>
      <stageThreshold>-2.0329537391662598e+00</stageThreshold>
      <weakClassifiers>
        <_>
          <internalNodes>
            0 -1 23 2.3959305137395859e-02</internalNodes>
          <leafValues>
            -9.6755045652389526e-01 5.1724135875701904e-01</leafValues></_>
        <_>
          <internalNodes>
            0 -1 2 -7.2142846882343292e-02</internalNodes>
          <leafValues>
            5.9198403358459473e-01 -9.0040147304534912e-01</leafValues></_>
        <_>
          <internalNodes>
            0 -1 7 -3.7669930607080460e-02</internalNodes>
          <leafValues>
            7.1780151128768921e-01 -7.9708170890808105e-01</leafValues></_>
        <_>
          <internalNodes>
            0 -1 36 -3.6479007452726364e-02</internalNodes>
          <leafValues>
            6.3207989931106567e-01 -8.1174701452255249e-01</leafValues></_></weakClassifiers></_>
    <!-- stage 4 -->
    <_>
      <maxWeakCount>4</maxWeakCount>
      <stageThreshold>-2.2790868282318115e+00</stageThreshold>
      <weakClassifiers>
        <_>
          <internalNodes>
            0 -1 26 2.0923625677824020e-02</internalNodes>
          <leafValues>
            -9.6897375583648682e-01 2.9577463865280151e-01</leafValues></_>
        <_>
          <internalNodes>
            0 -1 10 -2.1242763847112656e-02</internalNodes>
          <leafValues>
            5.0550633668899536e-01 -8.9876729249954224e-01</leafValues></_>
        <_>
          <internalNodes>
            0 -1 11 -3.6830753087997437e-02</internalNodes>
          <leafValues>
            5.9169119596481323e-01 -7.6980167627334595e-01</leafValues></_>
        <_>
          <internalNodes>
            0 -1 9 -1.6798483207821846e-02</internalNodes>
          <leafValues>
            3.5845577716827393e-01 -9.5589631795883179e-01</leafValues></_></weakClassifiers></_>
    <!-- stage 5 -->
    <_>
      <maxWeakCount>4</maxWeakCount>
      <stageThreshold>-2.1388216018676758e+00</stageThreshold>
      <weakClassifiers>
        <_>
          <internalNodes>
            0 -1 32 3.1040985137224197e-02</internalNodes>
          <leafValues>
            -9.5992141962051392e-01 6.9999998807907104e-01</leafValues></_>
        <_>
          <internalNodes>
            0 -1 21 -1.8513219431042671e-02</internalNodes>
          <leafValues>
            5.3940153121948242e-01 -8.7442690134048462e-01</leafValues></_>
        <_>
          <internalNodes>
            0 -1 18 -2.3170018196105957e-01</internalNodes>
          <leafValues>
            5.0903010368347168e-01 -7.6314657926559448e-01</leafValues></_>
        <_>
          <internalNodes>
            0 -1 4 7.3234379291534424e-02</internalNodes>
          <leafValues>
            -8.1350344419479370e-01 4.7745108604431152e-01</leafValues></_></weakClassifiers></_>
    <!-- stage 6 -->
    <_>
      <maxWeakCount>4</maxWeakCount>
      <stageThreshold>-2.2329871654510498e+00</stageThreshold>
      <weakClassifiers>
        <_>
          <internalNodes>
            0 -1 41 2.7268536388874054e-02</internalNodes>
          <leafValues>
            -9.6143251657485962e-01 6.3636362552642822e-01</leafValues></_>
        <_>
          <internalNodes>
            0 -1 34 -1.5989756211638451e-02</internalNodes>
          <leafValues>
            4.6077880263328552e-01 -8.7519913911819458e-01</leafValues></_>
        <_>
          <internalNodes>
            0 -1 38 -5.1205206662416458e-02</internalNodes>
          <leafValues>
            6.3149625062942505e-01 -7.0938211679458618e-01</leafValues></_>
        <_>
          <internalNodes>
            0 -1 15 1.6324196010828018e-02</internalNodes>
          <leafValues>
            -9.8184430599212646e-01 3.1302657723426819e-01</leafValues></_></weakClassifiers></_>
    <!-- stage 7 -->
    <_>
      <maxWeakCount>4</maxWeakCount>
      <stageThreshold>-2.0230786800384521e+00</stageThreshold>
      <weakClassifiers>
        <_>
          <internalNodes>
            0 -1 8 3.0011575669050217e-02</internalNodes>
          <leafValues>
            -9.5979505777359009e-01 4.1666665673255920e-01</leafValues></_>
        <_>
          <internalNodes>
            0 -1 19 1.2845983728766441e-02</internalNodes>
          <leafValues>
            -8.7622892856597900e-01 3.8935327529907227e-01</leafValues></_>
        <_>
          <internalNodes>
            0 -1 30 2.9397279024124146e-02</internalNodes>
          <leafValues>
            -7.1805202960968018e-01 6.1426132917404175e-01</leafValues></_>
        <_>
          <internalNodes>
            0 -1 25 -3.8225583266466856e-03</internalNodes>
          <leafValues>
            5.3317791223526001e-01 -7.3458492755889893e-01</leafValues></_></weakClassifiers></_>
    <!-- stage 8 -->
    <_>
      <maxWeakCount>4</maxWeakCount>
      <stageThreshold>-2.1603653430938721e+00</stageThreshold>
      <weakClassifiers>
        <_>
          <internalNodes>
            0 -1 22 1.1885354295372963e-02</internalNodes>
          <leafValues>
            -9.5897436141967773e-01 3.1999999284744263e-01</leafValues></_>
        <_>
          <internalNodes>
            0 -1 13 3.9976909756660461e-02</internalNodes>
          <leafValues>
            -8.9452373981475830e-01 2.9874578118324280e-01</leafValues></_>
        <_>
          <internalNodes>
            0 -1 39 -3.4021928906440735e-02</internalNodes>
          <leafValues>
            7.2392034530639648e-01 -6.6321718692779541e-01</leafValues></_>
        <_>
          <internalNodes>
            0 -1 16 -1.6738701378926635e-04</internalNodes>
          <leafValues>
            3.5634988546371460e-01 -7.9508048295974731e-01</leafValues></_></weakClassifiers></_>
    <!-- stage 9 -->
    <_>
      <maxWeakCount>4</maxWeakCount>
      <stageThreshold>-2.2892081737518311e+00</stageThreshold>
      <weakClassifiers>
        <_>
          <internalNodes>
            0 -1 40 2.0015448331832886e-02</internalNodes>
          <leafValues>
            -9.6431404352188110e-01 2.6984128355979919e-01</leafValues></_>
        <_>
          <internalNodes>
            0 -1 31 -2.6922086253762245e-02</internalNodes>
          <leafValues>
            5.1332658529281616e-01 -8.5038501024246216e-01</leafValues></_>
        <_>
          <internalNodes>
            0 -1 0 -4.5281227678060532e-02</internalNodes>
          <leafValues>
            4.2451885342597961e-01 -7.3470979928970337e-01</leafValues></_>
        <_>
          <internalNodes>
            0 -1 6 3.3010013867169619e-03</internalNodes>
          <leafValues>
            -9.8344469070434570e-01 2.6020073890686035e-01</leafValues></_></weakClassifiers></_>
    <!-- stage 10 -->
    <_>
      <maxWeakCount>5</maxWeakCount>
      <stageThreshold>-2.0633320808410645e+00</stageThreshold>
      <weakClassifiers>
        <_>
          <internalNodes>
            0 -1 17 -1.2463197112083435e-02</internalNodes>
          <leafValues>
            2.3636363446712494e-01 -9.5968377590179443e-01</leafValues></_>
        <_>
          <internalNodes>
            0 -1 41 1.5478651970624924e-02</internalNodes>
          <leafValues>
            -8.7703716754913330e-01 2.9059287905693054e-01</leafValues></_>
        <_>
          <internalNodes>
            0 -1 20 -6.5594613552093506e-03</internalNodes>
          <leafValues>
            3.8335704803466797e-01 -7.6668870449066162e-01</leafValues></_>
        <_>
          <internalNodes>
            0 -1 5 4.9551168922334909e-04</internalNodes>
          <leafValues>
            -1. 2.0834453403949738e-01</leafValues></_>
        <_>
          <internalNodes>
            0 -1 35 -6.0263364575803280e-03</internalNodes>
          <leafValues>
            3.3173313736915588e-01 -7.8484380245208740e-01</leafValues></_></weakClassifiers></_></stages>
  <features>
    <_>
      <rects>
        <_>
          0 2 8 12 -1.</_>
        <_>
          2 2 4 12 2.</_></rects>
      <tilted>0</tilted></_>
    <_>
      <rects>
        <_>
          0 16 3 7 -1.</_>
        <_>
          1 16 1 7 3.</_></rects>
      <tilted>0</tilted></_>
    <_>
      <rects>
        <_>
          1 0 21 4 -1.</_>
        <_>
          1 2 21 2 2.</_></rects>
      <tilted>0</tilted></_>
    <_>
      <rects>
        <_>
          1 3 2 14 -1.</_>
        <_>
          2 3 1 14 2.</_></rects>
      <tilted>0</tilted></_>
    <_>
      <rects>
        <_>
          1 11 15 8 -1.</_>
        <_>
          6 11 5 8 3.</_></rects>
      <tilted>0</tilted></_>
    <_>
      <rects>
        <_>
          1 12 8 2 -1.</_>
        <_>
          1 12 4 1 2.</_>
        <_>
          5 13 4 1 2.</_></rects>
      <tilted>0</tilted></_>
    <_>
      <rects>
        <_>
          4 6 14 6 -1.</_>
        <_>
          4 9 14 3 2.</_></rects>
      <tilted>0</tilted></_>
    <_>
      <rects>
        <_>
          4 18 7 6 -1.</_>
        <_>
          4 20 7 2 3.</_></rects>
      <tilted>0</tilted></_>
    <_>
      <rects>
        <_>
          5 14 3 3 -1.</_>
        <_>
          6 15 1 3 3.</_></rects>
      <tilted>1</tilted></_>
    <_>
      <rects>
        <_>
          6 4 6 4 -1.</_>
        <_>
          8 6 2 4 3.</_></rects>
      <tilted>1</tilted></_>
    <_>
      <rects>
        <_>
          7 11 2 4 -1.</_>
        <_>
          7 11 1 4 2.</_></rects>
      <tilted>1</tilted></_>
    <_>
      <rects>
        <_>
          8 0 6 4 -1.</_>
        <_>
          10 2 2 4 3.</_></rects>
      <tilted>1</tilted></_>
    <_>
      <rects>
        <_>
          8 8 4 6 -1.</_>
        <_>
          8 8 2 6 2.</_></rects>
      <tilted>1</tilted></_>
    <_>
      <rects>
        <_>
          8 10 4 6 -1.</_>
        <_>
          9 11 2 6 2.</_></rects>
      <tilted>1</tilted></_>
    <_>
      <rects>
        <_>
          9 3 4 8 -1.</_>
        <_>
          9 3 2 4 2.</_>
        <_>
          11 7 2 4 2.</_></rects>
      <tilted>0</tilted></_>
    <_>
      <rects>
        <_>
          9 5 12 12 -1.</_>
        <_>
          12 5 6 12 2.</_></rects>
      <tilted>0</tilted></_>
    <_>
      <rects>
        <_>
          9 8 7 6 -1.</_>
        <_>
          9 10 7 2 3.</_></rects>
      <tilted>0</tilted></_>
    <_>
      <rects>
        <_>
          9 15 3 1 -1.</_>
        <_>
          10 16 1 1 3.</_></rects>
      <tilted>1</tilted></_>
    <_>
      <rects>
        <_>
          10 0 15 12 -1.</_>
        <_>
          15 4 5 4 9.</_></rects>
      <tilted>0</tilted></_>
    <_>
      <rects>
        <_>
          10 6 3 2 -1.</_>
        <_>
          11 7 1 2 3.</_></rects>
      <tilted>1</tilted></_>
    <_>
      <rects>
        <_>
          11 4 2 8 -1.</_>
        <_>
          11 8 2 4 2.</_></rects>
      <tilted>0</tilted></_>
    <_>
      <rects>
        <_>
          11 5 3 8 -1.</_>
        <_>
          12 5 1 8 3.</_></rects>
      <tilted>0</tilted></_>
    <_>
      <rects>
        <_>
          12 13 2 6 -1.</_>
        <_>
          12 13 1 3 2.</_>
        <_>
          13 16 1 3 2.</_></rects>
      <tilted>0</tilted></_>
    <_>
      <rects>
        <_>
          12 13 3 3 -1.</_>
        <_>
          13 14 1 3 3.</_></rects>
      <tilted>1</tilted></_>
    <_>
      <rects>
        <_>
          13 6 6 12 -1.</_>
        <_>
          13 6 3 6 2.</_>
        <_>
          16 12 3 6 2.</_></rects>
      <tilted>0</tilted></_>
    <_>
      <rects>
        <_>
          14 1 1 6 -1.</_>
        <_>
          14 3 1 2 3.</_></rects>
      <tilted>0</tilted></_>
    <_>
      <rects>
        <_>
          14 3 3 3 -1.</_>
        <_>
          13 4 3 1 3.</_></rects>
      <tilted>1</tilted></_>
    <_>
      <rects>
        <_>
          14 11 4 3 -1.</_>
        <_>
          13 12 4 1 3.</_></rects>
      <tilted>1</tilted></_>
    <_>
      <rects>
        <_>
          14 14 6 3 -1.</_>
        <_>
          13 15 6 1 3.</_></rects>
      <tilted>1</tilted></_>
    <_>
      <rects>
        <_>
          14 19 4 6 -1.</_>
        <_>
          14 21 4 2 3.</_></rects>
      <tilted>0</tilted></_>
    <_>
      <rects>
        <_>
          14 21 9 4 -1.</_>
        <_>
          14 23 9 2 2.</_></rects>
      <tilted>0</tilted></_>
    <_>
      <rects>
        <_>
          15 12 3 3 -1.</_>
        <_>
          14 13 3 1 3.</_></rects>
      <tilted>1</tilted></_>
    <_>
      <rects>
        <_>
          16 6 3 4 -1.</_>
        <_>
          15 7 3 2 2.</_></rects>
      <tilted>1</tilted></_>
    <_>
      <rects>
        <_>
          16 6 9 10 -1.</_>
        <_>
          19 6 3 10 3.</_></rects>
      <tilted>0</tilted></_>
    <_>
      <rects>
        <_>
          16 9 2 8 -1.</_>
        <_>
          16 9 1 8 2.</_></rects>
      <tilted>1</tilted></_>
    <_>
      <rects>
        <_>
          17 5 8 3 -1.</_>
        <_>
          19 5 4 3 2.</_></rects>
      <tilted>0</tilted></_>
    <_>
      <rects>
        <_>
          17 7 6 4 -1.</_>
        <_>
          17 7 6 2 2.</_></rects>
      <tilted>1</tilted></_>
    <_>
      <rects>
        <_>
          18 10 6 4 -1.</_>
        <_>
          17 11 6 2 2.</_></rects>
      <tilted>1</tilted></_>
    <_>
      <rects>
        <_>
          19 6 6 12 -1.</_>
        <_>
          21 6 2 12 3.</_></rects>
      <tilted>0</tilted></_>
    <_>
      <rects>
        <_>
          21 4 3 21 -1.</_>
        <_>
          22 4 1 21 3.</_></rects>
      <tilted>0</tilted></_>
    <_>
      <rects>
        <_>
          21 15 2 3 -1.</_>
        <_>
          20 16 2 1 3.</_></rects>
      <tilted>1</tilted></_>
    <_>
      <rects>
        <_>
          21 15 3 3 -1.</_>
        <_>
          20 16 3 1 3.</_></rects>
      <tilted>1</tilted></_></features></cascade>
</opencv_storage>
